<?xml version="1.0"?>
<opencv_storage>
<stage1>
  <maxWeakCount>10</maxWeakCount>
  <stageThreshold>-1.4503484964370728e+000</stageThreshold>
  <weakClassifiers>
    <_>
      <internalNodes>
        0 -1 34478 -3.7152140866965055e-003</internalNodes>
      <leafValues>
        6.6772150993347168e-001 -4.5522388815879822e-001</leafValues></_>
    <_>
      <internalNodes>
        0 -1 158965 -6.2779439613223076e-003</internalNodes>
      <leafValues>
        5.3110903501510620e-001 -4.9773749709129333e-001</leafValues></_>
    <_>
      <internalNodes>
        0 -1 104161 -7.2217970155179501e-003</internalNodes>
      <leafValues>
        3.7136703729629517e-001 -7.2516137361526489e-001</leafValues></_>
    <_>
      <internalNodes>
        0 -1 5028 5.9617166407406330e-003</internalNodes>
      <leafValues>
        -3.9074507355690002e-001 4.3863034248352051e-001</leafValues></_>
    <_>
      <internalNodes>
        0 -1 34648 1.5562266111373901e-002</internalNodes>
      <leafValues>
        1.8919399380683899e-001 -8.8182097673416138e-001</leafValues></_>
    <_>
      <internalNodes>
        0 -1 99827 3.7643015384674072e-002</internalNodes>
      <leafValues>
        -3.6096951365470886e-001 5.4207509756088257e-001</leafValues></_>
    <_>
      <internalNodes>
        0 -1 67809 3.9088171906769276e-003</internalNodes>
      <leafValues>
        -4.0285760164260864e-001 3.2614004611968994e-001</leafValues></_>
    <_>
      <internalNodes>
        0 -1 118483 -9.5471478998661041e-003</internalNodes>
      <leafValues>
        -8.1283456087112427e-001 1.3009944558143616e-001</leafValues></_>
    <_>
      <internalNodes>
        0 -1 110302 -7.7027743682265282e-003</internalNodes>
      <leafValues>
        4.5331206917762756e-001 -2.5221136212348938e-001</leafValues></_>
    <_>
      <internalNodes>
        0 -1 86632 -5.9381769970059395e-003</internalNodes>
      <leafValues>
        2.0233765244483948e-001 -6.1063951253890991e-001</leafValues></_></weakClassifiers></stage1>
</opencv_storage>
