<?xml version="1.0"?>
<opencv_storage>
<stage4>
  <maxWeakCount>9</maxWeakCount>
  <stageThreshold>-1.0277668237686157e+000</stageThreshold>
  <weakClassifiers>
    <_>
      <internalNodes>
        0 -1 39066 8.8621433824300766e-003</internalNodes>
      <leafValues>
        -4.2431762814521790e-001 6.5575504302978516e-001</leafValues></_>
    <_>
      <internalNodes>
        0 -1 44291 -2.1400247351266444e-004</internalNodes>
      <leafValues>
        -7.4128592014312744e-001 3.3421999216079712e-001</leafValues></_>
    <_>
      <internalNodes>
        0 -1 56507 3.0240017920732498e-002</internalNodes>
      <leafValues>
        -3.1819236278533936e-001 6.6517853736877441e-001</leafValues></_>
    <_>
      <internalNodes>
        0 -1 56954 -3.5116781946271658e-003</internalNodes>
      <leafValues>
        6.0415554046630859e-001 -3.4081330895423889e-001</leafValues></_>
    <_>
      <internalNodes>
        0 -1 61585 1.3865206856280565e-003</internalNodes>
      <leafValues>
        2.5410470366477966e-001 -8.3220094442367554e-001</leafValues></_>
    <_>
      <internalNodes>
        0 -1 49369 1.7460527305956930e-004</internalNodes>
      <leafValues>
        2.1266977488994598e-001 -7.9684448242187500e-001</leafValues></_>
    <_>
      <internalNodes>
        0 -1 32682 -4.8383818939328194e-003</internalNodes>
      <leafValues>
        4.2190030217170715e-001 -4.5194825530052185e-001</leafValues></_>
    <_>
      <internalNodes>
        0 -1 3902 8.2174446433782578e-003</internalNodes>
      <leafValues>
        -3.2662779092788696e-001 5.3509390354156494e-001</leafValues></_>
    <_>
      <internalNodes>
        0 -1 44489 1.2389114999677986e-004</internalNodes>
      <leafValues>
        2.4559515714645386e-001 -6.2183904647827148e-001</leafValues></_></weakClassifiers></stage4>
</opencv_storage>
